{
  "modelTopology": "{\"class_name\":\"Sequential\",\"config\":{\"name\":\"sequential_1\",\"layers\":[{\"class_name\":\"Dense\",\"config\":{\"units\":32,\"activation\":\"relu\",\"use_bias\":true,\"kernel_initializer\":{\"class_name\":\"VarianceScaling\",\"config\":{\"scale\":1,\"mode\":\"fan_avg\",\"distribution\":\"normal\",\"seed\":null}},\"bias_initializer\":{\"class_name\":\"Zeros\",\"config\":{}},\"kernel_regularizer\":null,\"bias_regularizer\":null,\"activity_regularizer\":null,\"kernel_constraint\":null,\"bias_constraint\":null,\"name\":\"dense_Dense1\",\"trainable\":true,\"batch_input_shape\":[null,10],\"dtype\":\"float32\"}},{\"class_name\":\"Dropout\",\"config\":{\"rate\":0.2,\"noise_shape\":null,\"seed\":null,\"name\":\"dropout_Dropout1\",\"trainable\":true}},{\"class_name\":\"Dense\",\"config\":{\"units\":16,\"activation\":\"relu\",\"use_bias\":true,\"kernel_initializer\":{\"class_name\":\"VarianceScaling\",\"config\":{\"scale\":1,\"mode\":\"fan_avg\",\"distribution\":\"normal\",\"seed\":null}},\"bias_initializer\":{\"class_name\":\"Zeros\",\"config\":{}},\"kernel_regularizer\":null,\"bias_regularizer\":null,\"activity_regularizer\":null,\"kernel_constraint\":null,\"bias_constraint\":null,\"name\":\"dense_Dense2\",\"trainable\":true}},{\"class_name\":\"Dense\",\"config\":{\"units\":1,\"activation\":\"linear\",\"use_bias\":true,\"kernel_initializer\":{\"class_name\":\"VarianceScaling\",\"config\":{\"scale\":1,\"mode\":\"fan_avg\",\"distribution\":\"normal\",\"seed\":null}},\"bias_initializer\":{\"class_name\":\"Zeros\",\"config\":{}},\"kernel_regularizer\":null,\"bias_regularizer\":null,\"activity_regularizer\":null,\"kernel_constraint\":null,\"bias_constraint\":null,\"name\":\"dense_Dense3\",\"trainable\":true}}]},\"keras_version\":\"tfjs-layers 4.22.0\",\"backend\":\"tensor_flow.js\"}",
  "weightData": [
    {
      "name": "dense_Dense1/kernel",
      "shape": [
        10,
        32
      ],
      "data": [
        -0.28350257873535156,
        0.1490512639284134,
        0.12967683374881744,
        -0.13644863665103912,
        -0.11934364587068558,
        -0.3541243374347687,
        -0.03689368814229965,
        -0.42047277092933655,
        0.11937662959098816,
        -0.3002268373966217,
        0.00888876523822546,
        0.1982479840517044,
        0.057502854615449905,
        0.3181515634059906,
        0.10872841626405716,
        -0.09318293631076813,
        -0.2153651863336563,
        -0.041380252689123154,
        0.01846933551132679,
        0.19913935661315918,
        0.034615565091371536,
        0.1357591152191162,
        -0.03388458117842674,
        -0.08572424203157425,
        -0.20388934016227722,
        -0.1437475085258484,
        -0.08485328406095505,
        -0.05473555997014046,
        0.05502353608608246,
        0.16448886692523956,
        0.05452185496687889,
        0.2837153375148773,
        -0.31692707538604736,
        0.1626388430595398,
        -0.02078535407781601,
        0.3864836096763611,
        -0.16213609278202057,
        0.18897676467895508,
        -0.15860527753829956,
        0.22938518226146698,
        0.012358438223600388,
        0.17056292295455933,
        -0.27983540296554565,
        0.1755436509847641,
        0.11736869812011719,
        -0.2496062070131302,
        -0.03653434291481972,
        0.08663219213485718,
        -0.23055796325206757,
        0.05014857277274132,
        -0.12047510594129562,
        -0.2999696135520935,
        -0.38287392258644104,
        -0.09857561439275742,
        -0.10605829954147339,
        -0.4388634264469147,
        -0.4009564518928528,
        -0.12884925305843353,
        -0.17232564091682434,
        0.07310783863067627,
        -0.3366379737854004,
        0.19910378754138947,
        0.16998715698719025,
        -0.28767383098602295,
        0.17385518550872803,
        -0.053162526339292526,
        0.10877367109060287,
        0.012381795793771744,
        -0.23069219291210175,
        -0.013557820580899715,
        -0.34153246879577637,
        -0.0147176468744874,
        0.06853798776865005,
        0.2859114110469818,
        0.08290006220340729,
        -0.13389882445335388,
        0.16638073325157166,
        0.09378104656934738,
        0.04710345342755318,
        -0.4354396164417267,
        0.20142100751399994,
        0.2727729082107544,
        -0.16497524082660675,
        0.25061920285224915,
        -0.06639033555984497,
        -0.012350146658718586,
        0.3088310658931732,
        -0.032330796122550964,
        -0.2874360680580139,
        0.16739583015441895,
        -0.22314761579036713,
        -0.09212519228458405,
        -0.20028726756572723,
        0.05154348909854889,
        0.10389529168605804,
        0.19115415215492249,
        -0.05867403745651245,
        0.09042493999004364,
        0.15103046596050262,
        0.3220680058002472,
        0.18226361274719238,
        0.015138190239667892,
        0.2112026959657669,
        -0.10371817648410797,
        0.1339310109615326,
        -0.2320626825094223,
        -0.1414370983839035,
        -0.08531813323497772,
        -0.10237067192792892,
        0.37358981370925903,
        0.1873045265674591,
        0.12808948755264282,
        0.14204813539981842,
        -0.025620052590966225,
        -0.03750891610980034,
        0.045618895441293716,
        0.004476793110370636,
        0.2019607573747635,
        -0.24447466433048248,
        0.09709607809782028,
        0.10338561236858368,
        -0.2956293523311615,
        0.11523908376693726,
        0.0939871072769165,
        -0.14628715813159943,
        -0.2116803228855133,
        0.09501345455646515,
        -0.12420482188463211,
        0.039751239120960236,
        0.15889909863471985,
        0.03818618506193161,
        -0.27859464287757874,
        -0.0060396031476557255,
        -0.39720040559768677,
        -0.19647325575351715,
        0.11742178350687027,
        -0.22924071550369263,
        0.17960712313652039,
        0.05594603344798088,
        0.12895871698856354,
        0.25863611698150635,
        -0.20345628261566162,
        -0.08906431496143341,
        0.15243536233901978,
        0.16649433970451355,
        -0.06690309196710587,
        -0.14195775985717773,
        0.046500738710165024,
        0.09641656279563904,
        -0.05435575917363167,
        -0.18461069464683533,
        -0.10933081805706024,
        0.2332691252231598,
        -0.07965318113565445,
        0.12395478039979935,
        0.2032550424337387,
        0.2127465307712555,
        0.007615106180310249,
        0.17071880400180817,
        -0.08446098119020462,
        -0.07824479788541794,
        0.23707996308803558,
        0.28648999333381653,
        0.06683392822742462,
        -0.13485734164714813,
        -0.05733000859618187,
        -0.019526369869709015,
        -0.01313268207013607,
        0.18767055869102478,
        0.19856302440166473,
        -0.025842448696494102,
        -0.11982874572277069,
        0.10859782993793488,
        -0.2781943380832672,
        -0.25305357575416565,
        -0.15719084441661835,
        0.2697294354438782,
        -0.1021265760064125,
        0.017154311761260033,
        0.17769695818424225,
        -0.10975423455238342,
        0.14217256009578705,
        -0.09552833437919617,
        0.13098841905593872,
        0.017044732347130775,
        -0.014625032432377338,
        -0.23979954421520233,
        -0.041101425886154175,
        0.06345237791538239,
        0.052679870277643204,
        -0.1451311707496643,
        0.2192072570323944,
        0.17176182568073273,
        0.2257881760597229,
        0.3857651650905609,
        -0.2552853524684906,
        0.030244067311286926,
        -0.22968967258930206,
        0.15115655958652496,
        -0.06392333656549454,
        -0.12261877954006195,
        0.010785923339426517,
        -0.3238523304462433,
        0.17814353108406067,
        0.05334259197115898,
        0.02530231513082981,
        -0.21695898473262787,
        0.06959042698144913,
        -0.012294042855501175,
        0.20594200491905212,
        0.08516543358564377,
        -0.11584581434726715,
        0.1027749627828598,
        0.10533013939857483,
        -0.3704860806465149,
        -0.1567738652229309,
        -0.3890466094017029,
        -0.17862676084041595,
        -0.10389820486307144,
        -0.09527038037776947,
        0.2910645604133606,
        -0.07078705728054047,
        -0.1297282725572586,
        -0.029098233208060265,
        -0.04884222149848938,
        -0.17366383969783783,
        -0.03246132656931877,
        -0.26359033584594727,
        -0.17947745323181152,
        -0.20206822454929352,
        0.2575676441192627,
        -0.22983404994010925,
        0.19797587394714355,
        0.1388082057237625,
        0.049165163189172745,
        -0.4346558749675751,
        0.12090213596820831,
        0.24560856819152832,
        0.2372351884841919,
        0.29065391421318054,
        0.025742538273334503,
        0.02115652523934841,
        -0.08557964861392975,
        0.1474691480398178,
        0.2598314881324768,
        0.11610527336597443,
        -0.1415962129831314,
        -0.32483720779418945,
        0.12653610110282898,
        0.15598970651626587,
        0.184208482503891,
        -0.07361938804388046,
        0.057278428226709366,
        0.1929064393043518,
        0.0716947615146637,
        -0.0728093758225441,
        0.18757420778274536,
        0.36837008595466614,
        -0.15685930848121643,
        -0.16884975135326385,
        0.2889435291290283,
        0.08520002663135529,
        0.2834498882293701,
        -0.2517692744731903,
        -0.06216661259531975,
        0.07358065992593765,
        -0.10634414851665497,
        -0.19249002635478973,
        0.10129600018262863,
        0.3783515393733978,
        -0.020269406959414482,
        -0.16210684180259705,
        -0.06814958155155182,
        -0.08282490074634552,
        -0.05358131229877472,
        -0.05293498560786247,
        -0.386740505695343,
        -0.22259366512298584,
        0.1722109168767929,
        0.1980564296245575,
        -0.12174752354621887,
        -0.09804723411798477,
        0.19068005681037903,
        -0.01572253741323948,
        0.12578508257865906,
        0.07511227577924728,
        0.15300245583057404,
        0.22995108366012573,
        0.09209144860506058,
        0.014079715125262737,
        -0.03953510895371437,
        0.16617105901241302,
        -0.05164496228098869,
        0.11588770151138306,
        -0.12178514897823334,
        0.13698191940784454,
        0.35795220732688904,
        -0.2704572379589081,
        -0.06626486033201218,
        -0.1523188203573227,
        0.14648865163326263,
        -0.044065818190574646,
        -0.006738089490681887,
        0.3532203137874603,
        0.27841848134994507,
        -0.01559039019048214,
        0.14427699148654938,
        0.06712647527456284,
        -0.09799588471651077,
        -0.023267554119229317,
        -0.2338983118534088,
        -0.046430815011262894,
        0.1440279483795166,
        0.2870881259441376,
        -0.10024245828390121,
        0.10534796863794327,
        0.15683895349502563,
        0.2064853012561798,
        -0.10501588135957718,
        0.1156189814209938
      ]
    },
    {
      "name": "dense_Dense1/bias",
      "shape": [
        32
      ],
      "data": [
        -0.04936286807060242,
        -0.07426184415817261,
        -0.0605216845870018,
        -0.04968888685107231,
        -0.040736544877290726,
        -0.02861352637410164,
        -0.010454041883349419,
        0.027561016380786896,
        -0.01622004248201847,
        -0.05429113283753395,
        -0.03203979879617691,
        0.017046470195055008,
        0.005866839084774256,
        -0.045504823327064514,
        0.025393817573785782,
        -0.057473622262477875,
        -0.045237600803375244,
        -0.019951583817601204,
        -0.016602886840701103,
        0.04586198553442955,
        -0.04611055180430412,
        -0.034094471484422684,
        -0.0446113720536232,
        0.0034545680973678827,
        0.055273350328207016,
        -0.003613292006775737,
        -0.0411343052983284,
        -0.02462264895439148,
        0.02534947544336319,
        -0.04367159307003021,
        0.03962823003530502,
        -0.06032711640000343
      ]
    },
    {
      "name": "dense_Dense2/kernel",
      "shape": [
        32,
        16
      ],
      "data": [
        -0.2142951935529709,
        0.10669104754924774,
        0.2759551405906677,
        0.05513409897685051,
        0.3504360020160675,
        -0.3009743392467499,
        0.06499546766281128,
        0.17968669533729553,
        0.09998153150081635,
        -0.08353564888238907,
        -0.2013373076915741,
        0.09733055531978607,
        -0.0021844336297363043,
        -0.2709471583366394,
        -0.04877171292901039,
        0.1285616159439087,
        0.06075061485171318,
        -0.17137186229228973,
        -0.1610843539237976,
        0.09036345779895782,
        -0.029843175783753395,
        0.11992056667804718,
        -0.1186864823102951,
        0.013740941882133484,
        -0.2006525695323944,
        -0.10565301030874252,
        0.029681529849767685,
        -0.212691530585289,
        -0.17485357820987701,
        -0.1785285472869873,
        -0.11533559113740921,
        0.09952062368392944,
        -0.29006147384643555,
        -0.1493101418018341,
        0.014635930769145489,
        0.28661417961120605,
        0.04600830748677254,
        0.06712475419044495,
        0.08072669059038162,
        0.3144657015800476,
        -0.06595399230718613,
        -0.11284107714891434,
        -0.09936414659023285,
        0.06965745240449905,
        0.034024618566036224,
        0.18528327345848083,
        -0.3543263375759125,
        0.11412756145000458,
        -0.30019062757492065,
        0.033086299896240234,
        0.09272398799657822,
        -0.11143267899751663,
        0.027608273550868034,
        -0.0032463129609823227,
        -0.16775786876678467,
        0.17415615916252136,
        0.13157936930656433,
        0.006433525122702122,
        -0.15646907687187195,
        0.3374149203300476,
        0.06901684403419495,
        0.183224156498909,
        -0.08441029489040375,
        0.33668702840805054,
        0.14674165844917297,
        0.1381378024816513,
        0.2044750601053238,
        -0.3357207179069519,
        -0.15478308498859406,
        0.39464619755744934,
        -0.03595366328954697,
        0.23766106367111206,
        0.1970057189464569,
        -0.15329504013061523,
        -0.062362197786569595,
        -0.0008757291361689568,
        -0.2206837385892868,
        0.050934236496686935,
        0.04522208496928215,
        0.1893705576658249,
        -0.2202950119972229,
        -0.09928577393293381,
        0.21599847078323364,
        0.2606038451194763,
        -0.13823924958705902,
        0.21722401678562164,
        -0.10683146119117737,
        0.06041497737169266,
        0.04351633042097092,
        -0.113505519926548,
        0.008787430822849274,
        0.24547100067138672,
        -0.024205103516578674,
        0.14760170876979828,
        -0.29465386271476746,
        -0.025405973196029663,
        0.09357760101556778,
        0.08984120190143585,
        -0.12567450106143951,
        -0.09768795967102051,
        0.09283126145601273,
        -0.1649853140115738,
        0.33447086811065674,
        -0.12251811474561691,
        0.340084433555603,
        0.09611215442419052,
        -0.052503909915685654,
        -0.27462148666381836,
        0.0141312750056386,
        -0.010681049898266792,
        -0.04808787256479263,
        -0.17944778501987457,
        0.1391119658946991,
        -0.028548771515488625,
        -0.2623676359653473,
        -0.38682183623313904,
        0.12240735441446304,
        -0.08469879627227783,
        -0.16722263395786285,
        -0.36668911576271057,
        0.1160842627286911,
        -0.3304547965526581,
        -0.1914432793855667,
        0.1542973518371582,
        0.19124440848827362,
        -0.08390340954065323,
        0.039400018751621246,
        -0.06117446720600128,
        0.20886151492595673,
        0.07055176794528961,
        0.15156222879886627,
        -0.05716254189610481,
        0.23273980617523193,
        0.011097137816250324,
        0.2608115077018738,
        -0.42521369457244873,
        -0.004384105559438467,
        0.2263086587190628,
        0.16131208837032318,
        -0.31765687465667725,
        -0.09181417524814606,
        -0.2033071368932724,
        0.24779441952705383,
        0.15084347128868103,
        -0.06778132915496826,
        -0.035211171954870224,
        -0.20497414469718933,
        -0.1889994740486145,
        0.19055072963237762,
        -0.09797336906194687,
        0.11851787567138672,
        0.255391389131546,
        0.2248436063528061,
        -0.03053758665919304,
        0.019696934148669243,
        -0.06895836442708969,
        -0.2888660430908203,
        0.15298359096050262,
        -0.0934353768825531,
        0.09009477496147156,
        0.3388218283653259,
        0.21666526794433594,
        0.18898983299732208,
        -0.06654227524995804,
        0.22701027989387512,
        0.1104450449347496,
        -0.08071134984493256,
        -0.07791900634765625,
        0.05891387537121773,
        -0.05258024111390114,
        0.0684627816081047,
        -0.2683074474334717,
        -0.10029443353414536,
        -0.11444073170423508,
        0.061047788709402084,
        0.09632743895053864,
        -0.25854864716529846,
        -0.060264311730861664,
        -0.22171813249588013,
        0.2727961540222168,
        -0.28415921330451965,
        0.14759139716625214,
        -0.06123291701078415,
        -0.1996997892856598,
        0.0021933973766863346,
        0.07221150398254395,
        -0.05837387591600418,
        0.11920621991157532,
        -0.30742597579956055,
        -0.18122321367263794,
        -0.05046122893691063,
        0.2964685559272766,
        -0.11480735242366791,
        -0.17808803915977478,
        0.03836103901267052,
        -0.29339030385017395,
        0.1202908456325531,
        0.2338337004184723,
        0.131976917386055,
        -0.07862990349531174,
        0.03133385628461838,
        -0.3033045530319214,
        -0.3266741633415222,
        -0.09793265908956528,
        -0.01610991358757019,
        -0.10421633720397949,
        -0.23345020413398743,
        -0.07808101177215576,
        -0.16370965540409088,
        -0.053625982254743576,
        0.3859606385231018,
        -0.024264704436063766,
        0.344525545835495,
        0.36228835582733154,
        -0.12430641800165176,
        -0.1065644919872284,
        -0.04581872373819351,
        -0.20178045332431793,
        0.07534650713205338,
        -0.07234486937522888,
        -0.2205178439617157,
        -0.13744811713695526,
        0.2550412118434906,
        0.27231866121292114,
        -0.10423798859119415,
        0.16481657326221466,
        0.32232120633125305,
        -0.28394901752471924,
        -0.09604918956756592,
        0.3897755742073059,
        0.1285288780927658,
        -0.1894608438014984,
        0.11637234687805176,
        0.15014174580574036,
        -0.3861849009990692,
        -0.007754992693662643,
        -0.009240596555173397,
        -0.07039200514554977,
        0.10343741625547409,
        0.02179245837032795,
        0.20337629318237305,
        -0.08395430445671082,
        0.08472776412963867,
        0.3100161552429199,
        -0.24675576388835907,
        0.17111173272132874,
        0.21012891829013824,
        0.20696716010570526,
        -0.19435283541679382,
        0.09332041442394257,
        -0.17823828756809235,
        -0.24927979707717896,
        0.23348012566566467,
        -0.15532875061035156,
        0.24669349193572998,
        0.22968125343322754,
        -0.27996188402175903,
        -0.06749086827039719,
        0.2755816876888275,
        0.12798519432544708,
        -0.2095274031162262,
        -0.13257023692131042,
        -0.10484708845615387,
        -0.19044803082942963,
        0.33955007791519165,
        0.1699793040752411,
        -0.28554484248161316,
        -0.08169429004192352,
        -0.29617711901664734,
        -0.03440292924642563,
        -0.320017546415329,
        -0.009266025386750698,
        -0.23688717186450958,
        -0.011790575459599495,
        0.04129961133003235,
        0.0511617511510849,
        0.1445552110671997,
        -0.2198101133108139,
        0.07501160353422165,
        -0.08685652166604996,
        -0.325830340385437,
        -0.06517093628644943,
        -0.13256040215492249,
        0.26593780517578125,
        -0.2868703603744507,
        -0.15306976437568665,
        -0.07971326261758804,
        0.05916991084814072,
        -0.19690199196338654,
        -0.2164769172668457,
        -0.03668297454714775,
        0.1493016928434372,
        -0.21178478002548218,
        0.08644241839647293,
        0.24156473577022552,
        0.12279205024242401,
        -0.20198892056941986,
        -0.15934734046459198,
        0.09836173057556152,
        -0.2269618958234787,
        0.02167012169957161,
        -0.19881100952625275,
        0.042954206466674805,
        0.19869820773601532,
        0.21157106757164001,
        -0.11004848778247833,
        0.1274190992116928,
        -0.2889990210533142,
        -0.15613524615764618,
        0.02935904823243618,
        -0.3327123522758484,
        -0.09934472292661667,
        -0.32106253504753113,
        -0.11639149487018585,
        0.008406411856412888,
        -0.07145925611257553,
        -0.09483852982521057,
        -0.1928403526544571,
        -0.01148973498493433,
        -0.14913572371006012,
        0.15625151991844177,
        -0.25271227955818176,
        0.04413295537233353,
        -0.0015544374473392963,
        -0.09639670699834824,
        0.23164002597332,
        0.02070816420018673,
        0.11221418529748917,
        -0.10444532334804535,
        0.02216631919145584,
        0.05023953691124916,
        0.022518116980791092,
        0.19121161103248596,
        -0.16585326194763184,
        0.03279968723654747,
        0.005580631084740162,
        -0.03014754317700863,
        0.13601911067962646,
        0.21454176306724548,
        0.13199204206466675,
        -0.05438235402107239,
        -0.04603983834385872,
        -0.000373664079234004,
        -0.15641330182552338,
        -0.08864924311637878,
        0.1972464770078659,
        -0.37812668085098267,
        -0.3758026957511902,
        0.1279248148202896,
        -0.15189166367053986,
        -0.14432787895202637,
        0.09920602291822433,
        -0.014466815628111362,
        0.1413041353225708,
        -0.10907309502363205,
        0.13256989419460297,
        0.16078603267669678,
        0.07709073275327682,
        0.08416450023651123,
        0.1268387883901596,
        -0.18445441126823425,
        -0.08317092061042786,
        0.25936228036880493,
        -0.251550555229187,
        -0.3463045060634613,
        -0.31002354621887207,
        0.13214798271656036,
        -0.17112159729003906,
        -0.3582882285118103,
        -0.13382455706596375,
        -0.10727912187576294,
        0.10971973091363907,
        -0.12873145937919617,
        0.2600179612636566,
        -0.18926866352558136,
        -0.21372534334659576,
        0.20287145674228668,
        -0.2296125441789627,
        -0.1630643606185913,
        0.3667239248752594,
        0.21070098876953125,
        -0.1999252587556839,
        0.03635468706488609,
        0.23547165095806122,
        0.022068560123443604,
        -0.2211327999830246,
        -0.29453232884407043,
        -0.2787288725376129,
        -0.1734585016965866,
        -0.031970713287591934,
        0.07996021211147308,
        0.0358402244746685,
        -0.11779481917619705,
        -0.3251192271709442,
        0.08645738661289215,
        0.07748086750507355,
        -0.17582127451896667,
        0.03535393998026848,
        -0.09591948986053467,
        -0.2953324317932129,
        -0.41319990158081055,
        0.1283290535211563,
        0.06558691710233688,
        -0.06411895900964737,
        -0.23545674979686737,
        0.24180804193019867,
        0.1717694252729416,
        0.08977847546339035,
        0.1671903431415558,
        -0.3584008514881134,
        0.08714186400175095,
        -0.2806027829647064,
        0.08211255073547363,
        0.05241257697343826,
        0.053742166608572006,
        0.0623352974653244,
        -0.3491043746471405,
        -0.0770239531993866,
        -0.11681211739778519,
        -0.1542946845293045,
        -0.030154531821608543,
        -0.0937194898724556,
        0.08133043348789215,
        0.21618309617042542,
        0.22350703179836273,
        -0.3167623281478882,
        0.01767149195075035,
        0.10017188638448715,
        -0.14976361393928528,
        -0.004289759323000908,
        -0.1220497116446495,
        0.2718578279018402,
        0.03702811524271965,
        -0.13570037484169006,
        -0.2515849769115448,
        -0.08439058810472488,
        -0.2518855333328247,
        0.1524173617362976,
        -0.09644809365272522,
        0.14309300482273102,
        0.24508430063724518,
        -0.06719393283128738,
        -0.1806807518005371,
        -0.28070569038391113,
        -0.1273767054080963,
        -0.06704875826835632,
        -0.09254062175750732,
        0.07677997648715973,
        -0.27275487780570984,
        -0.11836790293455124,
        0.12032756209373474,
        -0.07739590108394623,
        0.08956073969602585,
        -0.04138786345720291,
        -0.020453723147511482,
        -0.27032220363616943,
        -0.1615891456604004,
        0.0033703697845339775,
        0.3299728333950043,
        0.30136990547180176,
        -0.08459392189979553,
        -0.3138915002346039,
        0.07147378474473953,
        0.007329593412578106,
        -0.02462395280599594,
        -0.19551341235637665,
        0.06936968863010406,
        0.024761242792010307,
        -0.21840211749076843,
        0.14609645307064056,
        0.14357340335845947,
        -0.007608662359416485,
        0.0981365442276001,
        0.23374713957309723,
        0.12204837054014206,
        -0.13633020222187042,
        0.1382199078798294,
        0.019482174888253212,
        0.13498815894126892,
        -0.08602717518806458,
        0.038219161331653595,
        0.13668256998062134,
        0.326722651720047,
        0.18655508756637573,
        -0.3350090980529785,
        -0.05984270200133324,
        0.1579384058713913,
        -0.1497904658317566,
        -0.24462765455245972,
        -0.027958983555436134,
        0.2060098797082901,
        -0.05341492220759392,
        -0.24404801428318024,
        -0.06962012499570847,
        -0.02633642964065075,
        -0.08132173866033554,
        0.3581834137439728,
        -0.04286493733525276,
        -0.10857170820236206,
        0.11426717042922974,
        -0.15215054154396057,
        -0.09270712733268738,
        -0.07069052755832672,
        0.016796467825770378,
        -0.33414721488952637,
        0.2537446916103363,
        0.10775306075811386,
        -0.012548711150884628,
        0.14639246463775635,
        0.2839091122150421,
        0.059936024248600006,
        -0.13891176879405975
      ]
    },
    {
      "name": "dense_Dense2/bias",
      "shape": [
        16
      ],
      "data": [
        -0.0476803220808506,
        -0.034883052110672,
        -0.012047022581100464,
        -0.05063389241695404,
        -0.046533387154340744,
        -0.009726116433739662,
        -0.015328507870435715,
        -0.05262552946805954,
        -0.004629198927432299,
        -0.047648653388023376,
        -0.02864391915500164,
        -0.02377011626958847,
        -0.026192879304289818,
        -0.005448867566883564,
        0.002392907626926899,
        0.01018539723008871
      ]
    },
    {
      "name": "dense_Dense3/kernel",
      "shape": [
        16,
        1
      ],
      "data": [
        -0.1335788369178772,
        -0.06814397871494293,
        0.07386068999767303,
        0.3120618462562561,
        -0.4592609107494354,
        -0.09807507693767548,
        -0.08776388317346573,
        0.5596122145652771,
        0.16707438230514526,
        -0.49922677874565125,
        -0.08521971851587296,
        0.030588746070861816,
        0.02813238650560379,
        -0.4411117434501648,
        0.1926192194223404,
        -0.08134453743696213
      ]
    },
    {
      "name": "dense_Dense3/bias",
      "shape": [
        1
      ],
      "data": [
        0.0036578874569386244
      ]
    }
  ],
  "format": "layers-model",
  "generatedBy": "TensorFlow.js",
  "convertedBy": null
}