{
  "modelTopology": "{\"class_name\":\"Sequential\",\"config\":{\"name\":\"sequential_1\",\"layers\":[{\"class_name\":\"Dense\",\"config\":{\"units\":32,\"activation\":\"relu\",\"use_bias\":true,\"kernel_initializer\":{\"class_name\":\"VarianceScaling\",\"config\":{\"scale\":1,\"mode\":\"fan_avg\",\"distribution\":\"normal\",\"seed\":null}},\"bias_initializer\":{\"class_name\":\"Zeros\",\"config\":{}},\"kernel_regularizer\":null,\"bias_regularizer\":null,\"activity_regularizer\":null,\"kernel_constraint\":null,\"bias_constraint\":null,\"name\":\"dense_Dense1\",\"trainable\":true,\"batch_input_shape\":[null,10],\"dtype\":\"float32\"}},{\"class_name\":\"Dropout\",\"config\":{\"rate\":0.2,\"noise_shape\":null,\"seed\":null,\"name\":\"dropout_Dropout1\",\"trainable\":true}},{\"class_name\":\"Dense\",\"config\":{\"units\":16,\"activation\":\"relu\",\"use_bias\":true,\"kernel_initializer\":{\"class_name\":\"VarianceScaling\",\"config\":{\"scale\":1,\"mode\":\"fan_avg\",\"distribution\":\"normal\",\"seed\":null}},\"bias_initializer\":{\"class_name\":\"Zeros\",\"config\":{}},\"kernel_regularizer\":null,\"bias_regularizer\":null,\"activity_regularizer\":null,\"kernel_constraint\":null,\"bias_constraint\":null,\"name\":\"dense_Dense2\",\"trainable\":true}},{\"class_name\":\"Dense\",\"config\":{\"units\":1,\"activation\":\"linear\",\"use_bias\":true,\"kernel_initializer\":{\"class_name\":\"VarianceScaling\",\"config\":{\"scale\":1,\"mode\":\"fan_avg\",\"distribution\":\"normal\",\"seed\":null}},\"bias_initializer\":{\"class_name\":\"Zeros\",\"config\":{}},\"kernel_regularizer\":null,\"bias_regularizer\":null,\"activity_regularizer\":null,\"kernel_constraint\":null,\"bias_constraint\":null,\"name\":\"dense_Dense3\",\"trainable\":true}}]},\"keras_version\":\"tfjs-layers 4.22.0\",\"backend\":\"tensor_flow.js\"}",
  "weightData": [
    {
      "name": "dense_Dense1/kernel",
      "shape": [
        10,
        32
      ],
      "data": [
        0.21644166111946106,
        -0.16300733387470245,
        0.04443427547812462,
        0.06786996126174927,
        0.06109743192791939,
        -0.05262112244963646,
        -0.21360069513320923,
        0.038159750401973724,
        -0.21962615847587585,
        0.02401096746325493,
        0.2247898429632187,
        -0.21244192123413086,
        -0.1889258474111557,
        -0.09013443440198898,
        -0.1045101135969162,
        -0.13167859613895416,
        -0.3723810017108917,
        -0.07440129667520523,
        -0.008851238526403904,
        0.21577252447605133,
        -0.14509271085262299,
        0.11508923768997192,
        -0.09976028650999069,
        0.3120333254337311,
        -0.25856661796569824,
        -0.18913540244102478,
        -0.09399699419736862,
        0.02219325676560402,
        0.2004847526550293,
        -0.006999773904681206,
        -0.13262316584587097,
        -0.07818540930747986,
        -0.018807101994752884,
        0.2546542286872864,
        0.01176373939961195,
        -0.006709595210850239,
        -0.21759161353111267,
        -0.10666727274656296,
        -0.014675331301987171,
        -0.21130195260047913,
        0.20603343844413757,
        -0.23871265351772308,
        0.039603810757398605,
        0.15102118253707886,
        0.3563251495361328,
        -0.2957179844379425,
        -0.08540285378694534,
        -0.012330696918070316,
        0.15148437023162842,
        0.17686858773231506,
        -0.10191323608160019,
        0.22185271978378296,
        0.19718113541603088,
        -0.2840636372566223,
        0.3327145576477051,
        -0.17277343571186066,
        0.06660269945859909,
        -0.21949881315231323,
        0.04656240716576576,
        0.18931914865970612,
        0.07655849307775497,
        0.18882571160793304,
        0.03328948840498924,
        0.15655700862407684,
        0.1916741579771042,
        -0.32049572467803955,
        -0.29376018047332764,
        -0.147268146276474,
        0.3572792708873749,
        0.22907082736492157,
        -0.19768434762954712,
        0.0625881552696228,
        0.10401087999343872,
        -0.30109506845474243,
        0.3471860885620117,
        -0.00544655742123723,
        0.15672822296619415,
        0.45403817296028137,
        0.2152588665485382,
        -0.1799849569797516,
        -0.2697918117046356,
        0.2607535421848297,
        -0.018043778836727142,
        -0.24893677234649658,
        0.018002981320023537,
        0.007274606265127659,
        0.24412117898464203,
        -0.1768375039100647,
        0.2255924940109253,
        0.11212331056594849,
        -0.10260038822889328,
        -0.1615239977836609,
        -0.1470792591571808,
        -0.12534752488136292,
        0.14242257177829742,
        -0.25963154435157776,
        -0.09227738529443741,
        -0.3892785310745239,
        0.35504022240638733,
        -0.17893405258655548,
        0.11711963266134262,
        0.21448488533496857,
        0.23038046061992645,
        -0.012745636515319347,
        -0.08687469363212585,
        -0.0428558886051178,
        -0.1686277538537979,
        -0.2500353157520294,
        -0.25440582633018494,
        -0.021572086960077286,
        0.164230614900589,
        -0.30048906803131104,
        0.31686633825302124,
        -0.04907567426562309,
        0.2848462462425232,
        -0.24121490120887756,
        0.11587855219841003,
        -0.22945967316627502,
        0.14220091700553894,
        -0.04321935027837753,
        -0.09852353483438492,
        0.08412446826696396,
        -0.12770232558250427,
        -0.1248936653137207,
        -0.08736039698123932,
        0.28982868790626526,
        -0.02934197150170803,
        0.060534633696079254,
        0.06429731100797653,
        -0.1411767601966858,
        -0.3130645751953125,
        0.2733863294124603,
        -0.14598843455314636,
        0.023280924186110497,
        -0.03898154944181442,
        0.09723974764347076,
        0.177313894033432,
        0.055411744862794876,
        -0.01307971403002739,
        -0.2607242465019226,
        0.3145560622215271,
        -0.12247057259082794,
        0.06134410575032234,
        0.16811920702457428,
        0.2684445381164551,
        0.10182029008865356,
        -0.03033781796693802,
        0.03162895515561104,
        -0.12674911320209503,
        0.13411077857017517,
        0.06927555054426193,
        -0.08247730135917664,
        0.2871236205101013,
        0.18318025767803192,
        -0.3287102282047272,
        -0.30548661947250366,
        -0.40043866634368896,
        -0.03609810769557953,
        0.23616300523281097,
        0.16176089644432068,
        -0.02103048749268055,
        -0.20518982410430908,
        -0.0960506796836853,
        -0.17339923977851868,
        -0.3883919417858124,
        -0.3213910162448883,
        0.1742996871471405,
        0.3148892819881439,
        -0.09201334416866302,
        -0.1665411740541458,
        -0.2714117765426636,
        0.01311695110052824,
        -0.03190673142671585,
        0.03213028609752655,
        -0.11202120035886765,
        -0.1462659388780594,
        0.2112874686717987,
        0.25809913873672485,
        0.032282497733831406,
        -0.23088929057121277,
        -0.1741188019514084,
        0.05846124887466431,
        0.2797048091888428,
        0.06579124182462692,
        -0.047673530876636505,
        -0.26839980483055115,
        -0.1531607061624527,
        -0.25166502594947815,
        0.0539424829185009,
        -0.15253864228725433,
        0.1843474805355072,
        0.03010534681379795,
        0.3106367290019989,
        -0.38175448775291443,
        0.24749699234962463,
        0.296638548374176,
        0.03221359848976135,
        0.24379262328147888,
        0.001769042108207941,
        0.027211438864469528,
        -0.002887242240831256,
        0.3363678455352783,
        0.3451468348503113,
        0.048804838210344315,
        -0.01875155232846737,
        0.03341689333319664,
        -0.29616308212280273,
        -0.399438738822937,
        0.33278465270996094,
        0.040478963404893875,
        0.2606826722621918,
        -0.3074260950088501,
        0.1459951102733612,
        0.3032514452934265,
        -0.16848249733448029,
        0.24720534682273865,
        0.18659834563732147,
        -0.27450332045555115,
        -0.19061750173568726,
        -0.11557266116142273,
        -0.08163737505674362,
        -0.1326732039451599,
        -0.0037290253676474094,
        -0.04368579015135765,
        0.15353071689605713,
        -0.05699159577488899,
        0.06626851111650467,
        0.0770326778292656,
        -0.3720470666885376,
        -0.015967553481459618,
        0.28565943241119385,
        -0.36206743121147156,
        0.0107718575745821,
        0.0014547290047630668,
        -0.061472274363040924,
        0.01984417624771595,
        0.03332631289958954,
        -0.03059735707938671,
        -0.1303984522819519,
        0.32612332701683044,
        -0.07531068474054337,
        -0.37096336483955383,
        0.06779704242944717,
        0.1869712620973587,
        -0.20622900128364563,
        -0.046292029321193695,
        0.20039907097816467,
        0.060393739491701126,
        0.13807998597621918,
        0.2537752389907837,
        0.17766594886779785,
        -0.2273661196231842,
        -0.17411543428897858,
        0.03978399932384491,
        0.08268085867166519,
        -0.1919465810060501,
        -0.000588561175391078,
        -0.18139171600341797,
        -0.19704942405223846,
        -0.1557757705450058,
        0.17496320605278015,
        0.18043270707130432,
        -0.291781485080719,
        -0.12405683100223541,
        -0.30619147419929504,
        0.32257556915283203,
        -0.11709646135568619,
        0.056028418242931366,
        -0.22851939499378204,
        -0.19554083049297333,
        0.02794250100851059,
        0.07154205441474915,
        0.027339020743966103,
        0.1052379310131073,
        -0.10623108595609665,
        -0.09226617217063904,
        0.3773200213909149,
        -0.2911529839038849,
        0.11833181977272034,
        0.3596454858779907,
        0.08161158859729767,
        0.17898276448249817,
        -0.28051871061325073,
        0.11046169698238373,
        -0.041960377246141434,
        -0.0232261773198843,
        0.18725314736366272,
        0.3036557734012604,
        -0.4337017834186554,
        0.30845311284065247,
        0.1643974632024765,
        -0.08156552165746689,
        -0.36409425735473633,
        -0.17974087595939636,
        -0.36166971921920776,
        0.007474832236766815,
        -0.09829390048980713,
        -0.13049723207950592,
        -0.3030228018760681,
        -0.06087835133075714,
        0.25142937898635864,
        0.10174243152141571,
        0.23367096483707428,
        0.15670697391033173,
        0.11956851184368134,
        0.022462118417024612,
        0.1498420685529709,
        -0.04031786322593689,
        -0.22399817407131195,
        0.25872814655303955,
        -0.089906707406044,
        0.21977771818637848,
        0.18139293789863586,
        0.2909782826900482,
        0.1836356222629547,
        -0.02547420747578144,
        0.3825590908527374,
        0.2484470009803772,
        0.0012469006469473243,
        -0.00407774094492197
      ]
    },
    {
      "name": "dense_Dense1/bias",
      "shape": [
        32
      ],
      "data": [
        0.012925487942993641,
        -0.023436857387423515,
        -0.028810573741793633,
        -0.007398206740617752,
        -0.011220306158065796,
        -0.019882112741470337,
        -0.013391285203397274,
        -0.021496595814824104,
        0.0025016742292791605,
        0.0037356570828706026,
        -0.04366067796945572,
        -0.028963927179574966,
        -0.027087582275271416,
        -0.003954943735152483,
        -0.004957073833793402,
        -0.028808968141674995,
        -0.02929944358766079,
        0.010861827060580254,
        0.014316434971988201,
        0.0035640231799334288,
        -0.007319475989788771,
        0.008270802907645702,
        0.039963722229003906,
        0.0041701579466462135,
        -0.027346668764948845,
        -0.03878571465611458,
        -0.043253093957901,
        -0.04041000455617905,
        -0.0012321308022364974,
        -0.02074424736201763,
        -0.010579334571957588,
        -0.013568665832281113
      ]
    },
    {
      "name": "dense_Dense2/kernel",
      "shape": [
        32,
        16
      ],
      "data": [
        0.11260581761598587,
        0.027696970850229263,
        0.12842626869678497,
        0.3328438103199005,
        -0.12362780421972275,
        -0.13416936993598938,
        0.32877957820892334,
        -0.010601291432976723,
        -0.02946356125175953,
        -0.046215593814849854,
        -0.26873430609703064,
        0.09855393320322037,
        0.3754362463951111,
        0.10900304466485977,
        0.17579250037670135,
        0.04534940794110298,
        -0.057933442294597626,
        -0.028207823634147644,
        0.005613693501800299,
        0.024745037779211998,
        0.0026966603472828865,
        0.21262934803962708,
        0.015237675048410892,
        0.04163672402501106,
        0.039365123957395554,
        0.0032942325342446566,
        -0.0919659286737442,
        0.005301082972437143,
        -0.12388985604047775,
        0.09783978015184402,
        0.0201618243008852,
        0.10920848697423935,
        -0.053808439522981644,
        0.011093835346400738,
        -0.20584271848201752,
        -0.06485147774219513,
        -0.23607227206230164,
        0.17213784158229828,
        -0.1405806690454483,
        -0.17082230746746063,
        -0.1805572658777237,
        0.08814597874879837,
        0.2075381726026535,
        -0.3159589171409607,
        -0.15107187628746033,
        0.00703245447948575,
        0.045663923025131226,
        0.09408822655677795,
        0.10604549944400787,
        0.010954433120787144,
        -0.09780382364988327,
        -0.26547062397003174,
        0.041764818131923676,
        -0.22717881202697754,
        0.004865650553256273,
        0.023095110431313515,
        -0.16055914759635925,
        -0.01756679080426693,
        0.21880659461021423,
        -0.08855879306793213,
        -0.1386028379201889,
        -0.11850758641958237,
        0.1011778712272644,
        0.3124687075614929,
        -0.35162651538848877,
        -0.171401247382164,
        0.2102847546339035,
        -0.009812010452151299,
        0.014581969939172268,
        0.25370919704437256,
        0.26457247138023376,
        0.011587116867303848,
        0.14435836672782898,
        0.044251445680856705,
        -0.327128529548645,
        0.03606419265270233,
        0.007006532978266478,
        -0.2122061401605606,
        -0.15189909934997559,
        -0.08555592596530914,
        -0.12006168067455292,
        0.03718249127268791,
        -0.39077258110046387,
        0.050463464111089706,
        0.2390439659357071,
        0.3175889849662781,
        0.21514372527599335,
        0.11423429101705551,
        0.008512287400662899,
        0.2173394411802292,
        -0.3290346562862396,
        -0.17545567452907562,
        0.4044630527496338,
        0.059221118688583374,
        0.1227688193321228,
        -0.04434484988451004,
        0.4175991415977478,
        -0.0984702855348587,
        -0.08368790149688721,
        0.14219847321510315,
        0.062625452876091,
        0.057556796818971634,
        -0.24192939698696136,
        0.024763723835349083,
        0.04153971001505852,
        -0.049146607518196106,
        0.01957245171070099,
        0.05701373517513275,
        -0.10107946395874023,
        -0.3317711651325226,
        -0.06778111308813095,
        -0.0691286250948906,
        -0.2777801752090454,
        -0.20702867209911346,
        0.26944515109062195,
        -0.08260054141283035,
        -0.41275861859321594,
        -0.017238905653357506,
        0.132798433303833,
        0.2847675681114197,
        -0.04611070454120636,
        -0.30681005120277405,
        0.1480390578508377,
        0.0911266878247261,
        -0.10464610159397125,
        0.062196146696805954,
        -0.22030165791511536,
        0.28281158208847046,
        0.19604524970054626,
        0.009133964776992798,
        0.05694211646914482,
        -0.03329360857605934,
        -0.19730211794376373,
        0.032906875014305115,
        -0.04521418362855911,
        -0.02726283296942711,
        -0.027648398652672768,
        0.05728110298514366,
        -0.06200198829174042,
        -0.015704339370131493,
        -0.15830394625663757,
        -0.038691144436597824,
        0.019445685669779778,
        0.10313619673252106,
        0.1662270724773407,
        -0.2094307392835617,
        0.1887768805027008,
        -0.16185744106769562,
        -0.24099256098270416,
        0.10906313359737396,
        -0.023803194984793663,
        0.19134633243083954,
        -0.25766661763191223,
        -0.15911675989627838,
        -0.12911540269851685,
        -0.17379538714885712,
        0.29833632707595825,
        0.22459831833839417,
        0.22358813881874084,
        -0.042640525847673416,
        -0.07015765458345413,
        0.38114532828330994,
        -0.2779177129268646,
        -0.06740725040435791,
        -0.037537191063165665,
        0.2148502767086029,
        0.3208516538143158,
        -0.08826558291912079,
        -0.04612354189157486,
        -0.055937714874744415,
        -0.04581838846206665,
        -0.027451330795884132,
        0.092945896089077,
        0.17548522353172302,
        -0.20697873830795288,
        0.0030806888826191425,
        0.13528786599636078,
        0.10343974828720093,
        0.1460932195186615,
        -0.09480107575654984,
        -0.188421368598938,
        0.10816486179828644,
        0.2701168358325958,
        0.2614118456840515,
        0.03348543494939804,
        0.027530523017048836,
        -0.16628199815750122,
        -0.33615371584892273,
        0.20316936075687408,
        -0.046148836612701416,
        0.0880831778049469,
        -0.22747577726840973,
        0.011203203350305557,
        -0.011008284986019135,
        0.06213843822479248,
        0.15330196917057037,
        -0.2214318960905075,
        -0.3603195548057556,
        -0.012306337244808674,
        -0.08169382065534592,
        0.05646682530641556,
        0.2270025908946991,
        0.1869666874408722,
        -0.16525603830814362,
        0.1639508605003357,
        0.25850310921669006,
        -0.1337955743074417,
        0.08826650679111481,
        -0.07288370281457901,
        0.15060925483703613,
        -0.027307717129588127,
        -0.11289682239294052,
        -0.11303480714559555,
        -0.1339595466852188,
        -0.13353663682937622,
        0.03221379593014717,
        -0.10791408270597458,
        -0.218557208776474,
        -0.11639197915792465,
        0.0835757926106453,
        -0.029881561174988747,
        -0.18486030399799347,
        0.24144166707992554,
        -0.005233000032603741,
        0.11474067717790604,
        -0.1691410094499588,
        -0.18774180114269257,
        0.2584744095802307,
        0.14232265949249268,
        -0.16946329176425934,
        0.03434395417571068,
        0.1049983873963356,
        -0.12271769344806671,
        -0.33239850401878357,
        0.035325270146131516,
        0.25108999013900757,
        0.2970653474330902,
        0.056106358766555786,
        -0.2570033669471741,
        0.005291445646435022,
        0.15872950851917267,
        -0.02566034160554409,
        -0.17268776893615723,
        -0.00485973060131073,
        0.11338897049427032,
        0.02256481908261776,
        0.06318945437669754,
        -0.006073609460145235,
        0.1590818613767624,
        0.0764123946428299,
        0.23367953300476074,
        -0.17637309432029724,
        0.30282118916511536,
        -0.33820009231567383,
        -0.09008695185184479,
        0.10017621517181396,
        -0.2037709653377533,
        0.015889249742031097,
        0.08882825821638107,
        -0.13013875484466553,
        0.08682834357023239,
        0.07598164677619934,
        0.09458520263433456,
        0.023182274773716927,
        -0.13546669483184814,
        0.0457642488181591,
        0.2933991849422455,
        -0.26211071014404297,
        0.1427367925643921,
        -0.05312815308570862,
        -0.0652085468173027,
        -0.25064972043037415,
        0.1544453501701355,
        -0.07454375922679901,
        0.17291204631328583,
        0.05708371847867966,
        0.23865513503551483,
        -0.04484041780233383,
        -0.15556460618972778,
        -0.07309411466121674,
        -0.3142654001712799,
        -0.16543707251548767,
        0.15830914676189423,
        -0.18994742631912231,
        0.2395467460155487,
        -0.2686026990413666,
        0.046905890107154846,
        0.11838667094707489,
        -0.2766357362270355,
        -0.21712233126163483,
        -0.11032506823539734,
        0.33709844946861267,
        -0.09771820157766342,
        0.11061651259660721,
        0.09981530159711838,
        0.1521289050579071,
        -0.03766026347875595,
        -0.2744552493095398,
        -0.25600960850715637,
        0.16414059698581696,
        0.18668825924396515,
        -0.2769355773925781,
        -0.006450716871768236,
        0.07098067551851273,
        0.34082579612731934,
        -0.10530569404363632,
        -0.08534536510705948,
        -0.023619161918759346,
        -0.09772613644599915,
        0.28112196922302246,
        -0.041094712913036346,
        -0.018444212153553963,
        0.008617285639047623,
        -0.2850659489631653,
        -0.18490220606327057,
        -0.13662366569042206,
        -0.12777847051620483,
        0.03624793887138367,
        -0.027979997918009758,
        -0.3639121651649475,
        0.1734081357717514,
        -0.06079047545790672,
        -0.2825375199317932,
        -0.2152157425880432,
        -0.19580139219760895,
        0.07105625420808792,
        -0.026585808023810387,
        0.34862419962882996,
        -0.13553501665592194,
        -0.05053998902440071,
        -0.22476597130298615,
        0.0298139825463295,
        0.03775516897439957,
        -0.13766051828861237,
        -0.27492284774780273,
        0.28817546367645264,
        0.005702169146388769,
        -0.05370815470814705,
        -0.320980966091156,
        -0.039713021367788315,
        0.003416303312405944,
        -0.058837890625,
        0.10038239508867264,
        -0.3051762878894806,
        0.12091721594333649,
        0.009647701866924763,
        -0.17496520280838013,
        -0.19935329258441925,
        -0.13205420970916748,
        0.024929460138082504,
        -0.06262505054473877,
        -0.24530158936977386,
        0.2237248718738556,
        -0.12012369185686111,
        -0.008614176884293556,
        0.38992422819137573,
        0.34469473361968994,
        -0.21480727195739746,
        0.1315295696258545,
        0.17897899448871613,
        -0.1569191962480545,
        -0.002249942859634757,
        0.20685294270515442,
        -0.044450417160987854,
        -0.13650234043598175,
        -0.2590807378292084,
        -0.32751139998435974,
        -0.03500715270638466,
        0.04955567419528961,
        -0.2214614748954773,
        -0.12264672666788101,
        -0.06097318232059479,
        0.10061714053153992,
        0.24026288092136383,
        0.1126619428396225,
        -0.006841541733592749,
        -0.10117361694574356,
        0.22481031715869904,
        -0.3072609007358551,
        -0.08286746591329575,
        -0.08598289638757706,
        -0.08371143788099289,
        0.10353696346282959,
        0.09496603906154633,
        -0.020014215260744095,
        0.04844160005450249,
        -0.09492165595293045,
        0.14208105206489563,
        0.057539865374565125,
        -0.17029297351837158,
        0.2230767458677292,
        0.16437561810016632,
        -0.10548046231269836,
        -0.09477241337299347,
        0.19627505540847778,
        -0.14160719513893127,
        0.07040786743164062,
        0.04518435150384903,
        0.12768514454364777,
        0.10784058272838593,
        -0.059005819261074066,
        0.1998012810945511,
        -0.09828783571720123,
        -0.0066552115604281425,
        0.2514324486255646,
        -0.12848936021327972,
        0.0036731832660734653,
        0.11676990240812302,
        0.005312216933816671,
        -0.1956218034029007,
        0.2341633141040802,
        -0.06984671950340271,
        0.03621504828333855,
        0.0012394359800964594,
        0.06276927888393402,
        -0.03082740679383278,
        0.03038175031542778,
        0.23736558854579926,
        -0.15176886320114136,
        -0.03717377409338951,
        0.002144464524462819,
        0.126327782869339,
        -0.008592460304498672,
        -0.33209171891212463,
        -0.0828034058213234,
        0.2288520634174347,
        0.2511078715324402,
        -0.1288619488477707,
        -0.061438653618097305,
        0.08651174604892731,
        -0.06740351021289825,
        0.23717086017131805,
        -0.020077498629689217,
        0.3082951307296753,
        -0.2126566618680954,
        -0.10213124752044678,
        -0.1839626431465149,
        0.278333455324173,
        -0.09132542461156845,
        -0.2055255025625229,
        0.28210756182670593,
        0.022253230214118958,
        0.1014920324087143,
        0.1025603711605072,
        0.1722509115934372,
        0.16285178065299988,
        0.25619807839393616,
        0.022657591849565506,
        -0.30433300137519836,
        0.07033606618642807,
        0.050874825567007065,
        -0.03158044070005417,
        -0.1910621076822281,
        -0.23207995295524597,
        -0.0670669674873352,
        0.04305325448513031,
        0.2011612206697464,
        -0.22217784821987152,
        -0.35409247875213623,
        -0.04084185138344765,
        0.05073545128107071,
        0.10535186529159546,
        -0.007089615799486637,
        0.04624733328819275,
        -0.06521103531122208,
        0.1453956663608551,
        -0.0639999657869339,
        0.26409098505973816,
        -0.27269446849823,
        -0.09453435987234116,
        0.0552990548312664,
        0.2352389246225357,
        -0.23157712817192078,
        -0.32967671751976013,
        -0.17462705075740814,
        -0.14135901629924774,
        0.16564208269119263,
        0.2763264775276184,
        0.15305179357528687,
        0.18492233753204346,
        -0.07165104150772095,
        -0.14880189299583435,
        -0.22284406423568726,
        -0.10521899908781052,
        0.016346443444490433,
        0.06280933320522308,
        0.005134665872901678,
        -0.07948329299688339,
        -0.06913090497255325,
        -0.1623244732618332,
        -0.14788487553596497,
        -0.20816351473331451,
        -0.03752239793539047,
        0.027529926970601082,
        0.05272844061255455,
        -0.22890567779541016,
        0.21405893564224243,
        0.04454515501856804,
        0.03477397933602333,
        -0.20897836983203888,
        -0.14230383932590485,
        0.20138970017433167,
        0.02077452465891838,
        0.046289101243019104,
        0.16061632335186005,
        0.05170927941799164,
        -0.009885543957352638,
        -0.06297876685857773,
        -0.19559626281261444,
        0.10765236616134644,
        0.06774498522281647,
        0.29793018102645874
      ]
    },
    {
      "name": "dense_Dense2/bias",
      "shape": [
        16
      ],
      "data": [
        -0.022732270881533623,
        -0.03712891414761543,
        -0.013225821778178215,
        -0.0016047043027356267,
        0.03579499572515488,
        -0.022933077067136765,
        -0.01657630130648613,
        -0.005701188463717699,
        -0.030408427119255066,
        -0.01271272823214531,
        -0.037783391773700714,
        -0.019181612879037857,
        -0.011372288689017296,
        -0.003828258952125907,
        0.000644921325147152,
        -0.0021584380883723497
      ]
    },
    {
      "name": "dense_Dense3/kernel",
      "shape": [
        16,
        1
      ],
      "data": [
        -0.024480285122990608,
        -0.435628741979599,
        0.22249561548233032,
        0.1650134176015854,
        0.0190034881234169,
        0.3203594386577606,
        0.152494415640831,
        -0.20894847810268402,
        0.11258215457201004,
        0.2171701192855835,
        -0.2218725085258484,
        0.1952083706855774,
        -0.27056482434272766,
        0.08017516136169434,
        0.1845175176858902,
        0.08099064975976944
      ]
    },
    {
      "name": "dense_Dense3/bias",
      "shape": [
        1
      ],
      "data": [
        -0.007222569081932306
      ]
    }
  ],
  "format": "layers-model",
  "generatedBy": "TensorFlow.js",
  "convertedBy": null
}